


    // !!! This file is generated using emlearn !!!

    #include "eml_trees.h"
    

static const EmlTreesNode rf1_nodes[309] = {
  { 4, 0.261032f, 1, 16 },
  { 3, 0.864686f, 1, 8 },
  { 4, 0.182160f, 1, 4 },
  { 0, 0.892777f, 1, 2 },
  { 3, 0.854833f, -1, -2 },
  { 1, 0.105755f, -3, -4 },
  { 3, 0.779539f, 1, 2 },
  { 1, 0.227408f, -5, -6 },
  { 1, 0.246633f, -7, -8 },
  { 4, 0.049177f, 1, 4 },
  { 4, 0.031158f, 1, 2 },
  { 0, 0.996663f, -9, -10 },
  { 4, 0.031200f, -11, -12 },
  { 3, 0.903820f, 1, 2 },
  { 5, 0.778167f, -13, -14 },
  { 3, 0.932047f, -15, -16 },
  { 4, 0.439148f, 1, 8 },
  { 3, 0.657344f, 1, 4 },
  { 3, 0.612613f, 1, 2 },
  { 2, 0.782837f, -17, -18 },
  { 0, 0.613122f, -19, -20 },
  { 0, 0.866398f, 1, 2 },
  { 4, 0.283128f, -21, -22 },
  { 5, 0.539405f, -23, -24 },
  { 3, 0.370244f, 1, 4 },
  { 3, 0.136605f, 1, 2 },
  { 2, 0.485698f, -25, -26 },
  { 1, 0.832274f, -27, -28 },
  { 4, 0.482299f, 1, 2 },
  { 5, 0.329247f, -29, -30 },
  { 2, 0.651780f, -31, -32 },
  { 3, 0.749698f, 1, 16 },
  { 4, 0.441523f, 1, 8 },
  { 4, 0.335849f, 1, 4 },
  { 3, 0.724798f, 1, 2 },
  { 1, 0.130537f, -33, -34 },
  { 1, 0.212283f, -35, -36 },
  { 3, 0.623624f, 1, 2 },
  { 3, 0.623070f, -37, -38 },
  { 0, 0.539529f, -39, -40 },
  { 3, 0.345292f, 1, 4 },
  { 2, 0.586106f, 1, 2 },
  { 5, 0.628430f, -41, -42 },
  { 2, 0.619089f, -43, -44 },
  { 4, 0.490708f, 1, 2 },
  { 5, 0.315236f, -45, -46 },
  { 2, 0.708114f, -47, -48 },
  { 3, 0.880120f, 1, 8 },
  { 3, 0.818662f, 1, 4 },
  { 3, 0.792282f, 1, 2 },
  { 0, 0.848682f, -49, -50 },
  { 0, 0.906250f, -51, -52 },
  { 4, 0.140655f, 1, 2 },
  { 1, 0.129325f, -53, -54 },
  { 0, 0.883842f, -55, -56 },
  { 3, 0.960158f, 1, 4 },
  { 4, 0.083941f, 1, 2 },
  { 3, 0.932255f, -57, -58 },
  { 4, 0.094655f, -59, -60 },
  { 4, 0.000700f, 1, 2 },
  { 1, 0.031283f, -61, -62 },
  { 4, 0.000794f, -63, -64 },
  { 4, 0.249650f, 1, 16 },
  { 4, 0.104344f, 1, 8 },
  { 4, 0.037617f, 1, 4 },
  { 4, 0.000648f, 1, 2 },
  { 1, 0.001474f, -65, -66 },
  { 3, 0.997529f, -67, -68 },
  { 3, 0.930149f, 1, 2 },
  { 3, 0.907105f, -69, -70 },
  { 3, 0.961274f, -71, -72 },
  { 3, 0.818537f, 1, 4 },
  { 3, 0.790833f, 1, 2 },
  { 1, 0.152591f, -73, -74 },
  { 1, 0.075893f, -75, -76 },
  { 3, 0.848046f, 1, 2 },
  { 1, 0.133255f, -77, -78 },
  { 3, 0.868139f, -79, -80 },
  { 3, 0.557881f, 1, 8 },
  { 4, 0.629387f, 1, 4 },
  { 3, 0.505160f, 1, 2 },
  { 5, 0.172796f, -81, -82 },
  { 3, 0.505526f, -83, -84 },
  { 0, 0.560039f, 1, 2 },
  { 0, 0.443996f, -85, -86 },
  { 1, 0.243818f, -87, -88 },
  { 3, 0.658815f, 1, 4 },
  { 4, 0.401666f, 1, 2 },
  { 1, 0.380741f, -89, -90 },
  { 3, 0.559590f, -91, -92 },
  { 4, 0.285208f, 1, 2 },
  { 1, 0.212200f, -93, -94 },
  { 0, 0.866398f, -95, -96 },
  { 4, 0.261503f, 1, 16 },
  { 4, 0.135993f, 1, 8 },
  { 3, 0.932255f, 1, 4 },
  { 4, 0.087850f, 1, 2 },
  { 3, 0.932109f, -97, -98 },
  { 4, 0.087903f, -99, -100 },
  { 4, 0.031994f, 1, 2 },
  { 4, 0.000690f, -101, -102 },
  { 0, 0.996851f, -103, -104 },
  { 3, 0.792428f, 1, 4 },
  { 1, 0.219339f, 1, 2 },
  { 4, 0.244110f, -105, -106 },
  { 0, 0.778007f, -107, -108 },
  { 4, 0.160660f, 1, 2 },
  { 4, 0.136077f, -109, -110 },
  { 1, 0.014434f, -111, -112 },
  { 4, 0.457669f, 1, 8 },
  { 4, 0.335891f, 1, 4 },
  { 0, 0.901620f, 1, 2 },
  { 3, 0.675217f, -113, -114 },
  { 1, 0.091697f, -115, -116 },
  { 4, 0.370592f, 1, 2 },
  { 1, 0.500481f, -117, -118 },
  { 1, 0.453666f, -119, -120 },
  { 4, 0.628896f, 1, 4 },
  { 3, 0.500072f, 1, 2 },
  { 2, 0.455633f, -121, -122 },
  { 2, 0.207823f, -123, -124 },
  { 2, 0.595738f, 1, 2 },
  { 4, 0.837015f, -125, -126 },
  { 2, 0.614711f, -127, -128 },
  { 3, 0.757768f, 1, 16 },
  { 3, 0.566254f, 1, 8 },
  { 4, 0.620869f, 1, 4 },
  { 3, 0.497371f, 1, 2 },
  { 2, 0.691477f, -129, -130 },
  { 4, 0.501651f, -131, -132 },
  { 3, 0.245902f, 1, 2 },
  { 2, 0.565382f, -133, -134 },
  { 1, 0.698194f, -135, -136 },
  { 4, 0.323881f, 1, 4 },
  { 1, 0.145358f, 1, 2 },
  { 0, 0.855366f, -137, -138 },
  { 3, 0.731376f, -139, -140 },
  { 4, 0.362094f, 1, 2 },
  { 0, 0.524733f, -141, -142 },
  { 5, 0.759486f, -143, -144 },
  { 4, 0.126084f, 1, 8 },
  { 4, 0.046669f, 1, 4 },
  { 4, 0.006564f, 1, 2 },
  { 0, 0.995256f, -145, -146 },
  { 3, 0.966852f, -147, -148 },
  { 4, 0.086669f, 1, 2 },
  { 3, 0.952035f, -149, -150 },
  { 3, 0.898106f, -151, -152 },
  { 4, 0.178607f, 1, 4 },
  { 1, 0.046669f, 1, 2 },
  { 3, 0.871495f, -153, -154 },
  { 3, 0.848066f, -155, -156 },
  { 0, 0.781603f, 1, 2 },
  { 2, 0.259194f, -157, -158 },
  { 4, 0.210987f, -159, -160 },
  { 4, 0.247518f, 1, 16 },
  { 4, 0.104971f, 1, 8 },
  { 3, 0.960627f, 1, 4 },
  { 4, 0.077085f, 1, 2 },
  { 4, 0.059692f, -161, -162 },
  { 0, 0.960262f, -163, -164 },
  { 3, 0.990407f, 1, 2 },
  { 2, 0.623468f, -165, -166 },
  { 1, 0.001557f, -167, -168 },
  { 4, 0.175983f, 1, 4 },
  { 3, 0.868117f, 1, 2 },
  { 1, 0.037596f, -169, -170 },
  { 3, 0.893737f, -171, -172 },
  { 3, 0.790457f, 1, 2 },
  { 1, 0.224941f, -173, -174 },
  { 4, 0.176004f, -175, -176 },
  { 3, 0.576179f, 1, 8 },
  { 3, 0.373214f, 1, 4 },
  { 3, 0.246371f, 1, 2 },
  { 5, 0.617046f, -177, -178 },
  { 1, 0.693814f, -179, -180 },
  { 3, 0.510729f, 1, 2 },
  { 1, 0.319000f, -181, -182 },
  { 2, 0.497665f, -183, -184 },
  { 3, 0.665822f, 1, 4 },
  { 4, 0.361133f, 1, 2 },
  { 1, 0.269624f, -185, -186 },
  { 0, 0.545566f, -187, -188 },
  { 3, 0.715840f, 1, 2 },
  { 0, 0.867941f, -189, -190 },
  { 0, 0.774222f, -191, -192 },
  { 4, 0.247455f, 1, 16 },
  { 4, 0.103257f, 1, 8 },
  { 3, 0.949637f, 1, 4 },
  { 3, 0.932255f, 1, 2 },
  { 1, 0.068765f, -193, -194 },
  { 3, 0.948709f, -195, -196 },
  { 4, 0.031597f, 1, 2 },
  { 4, 0.000491f, -197, -198 },
  { 3, 0.966665f, -199, -200 },
  { 3, 0.836012f, 1, 4 },
  { 3, 0.792282f, 1, 2 },
  { 0, 0.848682f, -201, -202 },
  { 0, 0.800007f, -203, -204 },
  { 4, 0.132105f, 1, 2 },
  { 0, 0.801134f, -205, -206 },
  { 0, 0.945550f, -207, -208 },
  { 3, 0.576066f, 1, 8 },
  { 3, 0.370713f, 1, 4 },
  { 2, 0.231465f, 1, 2 },
  { 2, 0.217455f, -209, -210 },
  { 2, 0.668126f, -211, -212 },
  { 3, 0.529509f, 1, 2 },
  { 4, 0.628373f, -213, -214 },
  { 2, 0.528021f, -215, -216 },
  { 4, 0.331083f, 1, 4 },
  { 3, 0.718969f, 1, 2 },
  { 0, 0.866564f, -217, -218 },
  { 0, 0.774389f, -219, -220 },
  { 3, 0.615053f, 1, 2 },
  { 2, 0.733508f, -221, -222 },
  { 1, 0.453666f, -223, -224 },
  { 4, 0.252347f, 1, 16 },
  { 4, 0.127799f, 1, 8 },
  { 4, 0.049251f, 1, 4 },
  { 3, 0.980762f, 1, 2 },
  { 3, 0.966852f, -225, -226 },
  { 4, 0.000429f, -227, -228 },
  { 4, 0.087788f, 1, 2 },
  { 4, 0.049282f, -229, -230 },
  { 3, 0.898148f, -231, -232 },
  { 3, 0.818537f, 1, 4 },
  { 3, 0.783866f, 1, 2 },
  { 0, 0.784931f, -233, -234 },
  { 1, 0.214740f, -235, -236 },
  { 3, 0.852133f, 1, 2 },
  { 0, 0.953099f, -237, -238 },
  { 2, 0.268535f, -239, -240 },
  { 4, 0.430911f, 1, 8 },
  { 3, 0.664310f, 1, 4 },
  { 3, 0.619390f, 1, 2 },
  { 2, 0.810858f, -241, -242 },
  { 0, 0.498207f, -243, -244 },
  { 3, 0.705268f, 1, 2 },
  { 0, 0.682984f, -245, -246 },
  { 2, 0.175131f, -247, -248 },
  { 3, 0.353872f, 1, 3 },
  { 2, 0.245476f, -210, 1 },
  { 2, 0.745476f, -249, -250 },
  { 3, 0.500553f, 1, 2 },
  { 2, 0.701109f, -251, -252 },
  { 1, 0.130213f, -253, -254 },
  { 3, 0.738779f, 1, 16 },
  { 4, 0.448178f, 1, 8 },
  { 3, 0.659064f, 1, 4 },
  { 4, 0.382350f, 1, 2 },
  { 0, 0.554867f, -255, -256 },
  { 5, 0.824869f, -257, -258 },
  { 1, 0.344106f, 1, 2 },
  { 3, 0.710763f, -259, -260 },
  { 1, 0.346008f, -261, -262 },
  { 4, 0.628896f, 1, 4 },
  { 5, 0.172796f, 1, 2 },
  { 2, 0.644775f, -263, -264 },
  { 4, 0.483604f, -265, -266 },
  { 4, 0.693428f, 1, 2 },
  { 4, 0.689790f, -267, -268 },
  { 5, 0.598074f, -269, -270 },
  { 3, 0.868138f, 1, 8 },
  { 3, 0.818579f, 1, 4 },
  { 3, 0.778956f, 1, 2 },
  { 4, 0.219861f, -271, -272 },
  { 4, 0.179401f, -273, -274 },
  { 0, 0.872727f, 1, 2 },
  { 3, 0.867983f, -275, -276 },
  { 3, 0.846157f, -277, -278 },
  { 3, 0.932255f, 1, 4 },
  { 3, 0.898096f, 1, 2 },
  { 0, 0.907793f, -279, -280 },
  { 3, 0.898701f, -281, -282 },
  { 4, 0.031597f, 1, 2 },
  { 4, 0.000648f, -283, -284 },
  { 3, 0.950419f, -285, -286 },
  { 4, 0.261503f, 1, 16 },
  { 3, 0.870735f, 1, 8 },
  { 4, 0.194049f, 1, 4 },
  { 4, 0.159155f, 1, 2 },
  { 0, 0.974558f, -287, -288 },
  { 0, 0.800624f, -289, -290 },
  { 3, 0.790457f, 1, 2 },
  { 0, 0.784003f, -291, -292 },
  { 4, 0.194101f, -293, -294 },
  { 4, 0.047714f, 1, 4 },
  { 4, 0.014194f, 1, 2 },
  { 1, 0.001547f, -295, -296 },
  { 4, 0.031597f, -297, -298 },
  { 4, 0.087788f, 1, 2 },
  { 4, 0.058584f, -299, -300 },
  { 3, 0.897971f, -301, -302 },
  { 4, 0.420794f, 1, 8 },
  { 4, 0.323902f, 1, 4 },
  { 1, 0.131614f, 1, 2 },
  { 3, 0.726456f, -303, -304 },
  { 3, 0.703942f, -305, -306 },
  { 4, 0.361133f, 1, 2 },
  { 0, 0.568170f, -307, -308 },
  { 1, 0.454220f, -309, -310 },
  { 4, 0.624254f, 1, 4 },
  { 4, 0.490835f, 1, 2 },
  { 1, 0.052846f, -311, -312 },
  { 2, 0.747519f, -313, -314 },
  { 3, 0.207166f, 1, 2 },
  { 0, 0.212536f, -315, -316 },
  { 2, 0.457968f, -317, -318 } 
};

static const int32_t rf1_tree_roots[10] = { 0, 31, 62, 93, 124, 155, 186, 217, 247, 278 };

static const uint8_t rf1_leaves[1272] = { 39, 193, 88, 63, 119, 61, 95, 63, 156, 18, 83, 63, 173, 143, 9, 63, 143, 250, 69, 63, 111, 8, 80, 63, 48, 181, 79, 63, 251, 202, 86, 63, 67, 116, 116, 63, 236, 195, 123, 63, 216, 133, 91, 63, 104, 199, 111, 63, 83, 174, 97, 63, 65, 108, 66, 63, 204, 241, 102, 63, 223, 185, 106, 63, 152, 186, 41, 63, 156, 170, 117, 63, 136, 235, 62, 63, 153, 65, 48, 63, 239, 190, 69, 63, 229, 91, 61, 63, 50, 149, 44, 63, 42, 184, 60, 63, 180, 49, 101, 62, 248, 208, 132, 61, 23, 115, 216, 62, 188, 80, 35, 63, 6, 254, 11, 63, 94, 32, 34, 63, 115, 106, 15, 63, 149, 114, 42, 63, 54, 91, 48, 63, 149, 159, 62, 63, 184, 235, 63, 63, 121, 56, 72, 63, 83, 222, 42, 63, 17, 144, 255, 62, 109, 195, 75, 63, 83, 19, 50, 63, 224, 3, 191, 62, 175, 110, 13, 63, 202, 195, 66, 63, 63, 210, 223, 62, 76, 223, 10, 63, 44, 64, 30, 63, 253, 53, 13, 63, 67, 149, 50, 63, 245, 106, 77, 63, 21, 74, 68, 63, 166, 17, 83, 63, 246, 140, 71, 63, 247, 42, 92, 63, 1, 109, 96, 63, 94, 158, 89, 63, 196, 246, 79, 63, 127, 85, 104, 63, 93, 78, 108, 63, 230, 44, 102, 63, 201, 41, 98, 63, 25, 237, 124, 63, 241, 65, 115, 63, 29, 19, 31, 63, 250, 113, 115, 63, 237, 54, 126, 63, 91, 128, 121, 63, 226, 240, 115, 63, 58, 206, 49, 63, 226, 208, 100, 63, 168, 144, 103, 63, 127, 221, 108, 63, 160, 62, 52, 63, 194, 69, 65, 63, 84, 197, 77, 63, 13, 205, 69, 63, 132, 249, 82, 63, 95, 105, 83, 63, 214, 214, 89, 63, 245, 67, 92, 63, 95, 125, 96, 63, 9, 245, 90, 63, 96, 174, 13, 63, 144, 171, 94, 63, 72, 248, 26, 63, 101, 23, 224, 62, 119, 185, 173, 62, 220, 98, 165, 62, 227, 36, 41, 63, 6, 248, 45, 63, 28, 218, 56, 63, 199, 219, 67, 63, 152, 197, 38, 63, 160, 18, 64, 63, 212, 28, 72, 63, 243, 113, 61, 63, 96, 221, 42, 63, 57, 33, 104, 63, 86, 223, 87, 63, 153, 184, 8, 63, 19, 211, 97, 63, 117, 224, 123, 63, 174, 28, 116, 63, 255, 84, 109, 63, 124, 131, 95, 63, 189, 141, 71, 63, 39, 123, 63, 63, 22, 112, 79, 63, 191, 70, 98, 63, 113, 102, 51, 63, 67, 62, 90, 63, 175, 148, 21, 63, 47, 197, 83, 63, 15, 14, 58, 63, 12, 140, 66, 63, 110, 89, 52, 63, 160, 241, 9, 63, 120, 159, 51, 63, 94, 189, 79, 63, 25, 176, 38, 63, 249, 110, 50, 63, 157, 57, 4, 63, 88, 100, 20, 63, 115, 252, 159, 62, 80, 204, 25, 63, 231, 14, 213, 62, 231, 244, 114, 62, 128, 231, 92, 63, 28, 12, 252, 62, 99, 21, 16, 63, 4, 227, 60, 63, 102, 105, 28, 63, 214, 28, 111, 63, 145, 185, 120, 62, 54, 71, 27, 63, 64, 26, 212, 62, 6, 245, 8, 63, 199, 122, 30, 63, 43, 122, 58, 63, 193, 187, 65, 63, 135, 51, 72, 63, 3, 174, 73, 63, 25, 251, 52, 63, 90, 29, 45, 63, 231, 247, 7, 63, 110, 13, 118, 63, 35, 90, 125, 63, 10, 157, 110, 63, 35, 151, 115, 63, 23, 106, 105, 63, 121, 116, 37, 63, 190, 252, 97, 63, 53, 85, 101, 63, 142, 158, 79, 63, 131, 50, 168, 62, 5, 215, 87, 63, 80, 180, 92, 63, 137, 85, 70, 63, 75, 144, 84, 63, 89, 206, 80, 63, 36, 216, 71, 63, 111, 153, 108, 63, 66, 38, 106, 63, 14, 197, 101, 63, 60, 116, 94, 63, 107, 121, 115, 63, 210, 124, 107, 63, 130, 203, 124, 63, 157, 19, 120, 63, 153, 53, 73, 63, 206, 163, 89, 63, 132, 55, 96, 63, 247, 87, 248, 62, 167, 4, 72, 63, 125, 202, 81, 63, 101, 60, 218, 62, 25, 215, 82, 63, 28, 130, 153, 62, 251, 225, 112, 63, 164, 24, 220, 62, 10, 140, 11, 63, 60, 218, 1, 63, 212, 65, 18, 63, 81, 224, 34, 63, 126, 233, 23, 63, 230, 94, 44, 63, 245, 24, 56, 63, 238, 132, 54, 63, 154, 214, 42, 63, 43, 247, 62, 63, 62, 226, 40, 63, 166, 225, 72, 63, 154, 83, 65, 63, 54, 248, 99, 63, 148, 219, 103, 63, 193, 223, 107, 63, 55, 182, 97, 63, 178, 212, 123, 63, 150, 163, 116, 63, 209, 99, 111, 63, 40, 224, 94, 63, 163, 31, 78, 63, 220, 73, 65, 63, 60, 62, 88, 63, 37, 247, 81, 63, 170, 95, 102, 63, 207, 236, 94, 63, 5, 180, 91, 63, 163, 97, 78, 63, 25, 187, 239, 62, 26, 211, 112, 63, 215, 56, 213, 62, 247, 27, 24, 63, 9, 210, 14, 63, 114, 22, 104, 63, 73, 9, 38, 63, 203, 126, 23, 63, 15, 65, 63, 63, 22, 54, 44, 63, 242, 171, 72, 63, 235, 58, 65, 63, 135, 170, 40, 63, 24, 183, 101, 63, 105, 14, 51, 63, 26, 227, 70, 63, 158, 198, 110, 63, 72, 136, 115, 63, 59, 154, 124, 63, 115, 122, 118, 63, 43, 117, 226, 62, 125, 162, 105, 63, 34, 170, 97, 63, 199, 45, 101, 63, 253, 180, 79, 63, 59, 171, 70, 63, 149, 132, 79, 63, 21, 219, 83, 63, 197, 27, 88, 63, 215, 206, 54, 63, 34, 11, 81, 63, 154, 3, 94, 63, 150, 58, 43, 63, 133, 104, 123, 63, 131, 14, 79, 63, 13, 142, 50, 63, 17, 208, 66, 63, 105, 165, 57, 63, 54, 210, 20, 63, 48, 21, 68, 63, 200, 37, 215, 62, 211, 74, 111, 63, 218, 152, 11, 63, 117, 30, 62, 63, 169, 157, 255, 62, 101, 214, 29, 63, 87, 11, 66, 63, 104, 133, 48, 63, 168, 229, 41, 63, 138, 108, 233, 62, 228, 106, 58, 63, 231, 194, 66, 63, 47, 184, 95, 63, 250, 241, 69, 63, 112, 150, 58, 63, 6, 160, 115, 63, 193, 116, 27, 63, 79, 208, 15, 63, 168, 1, 239, 62, 0, 158, 64, 63, 126, 192, 173, 62, 187, 244, 249, 62, 213, 246, 38, 63, 110, 155, 73, 63, 161, 4, 20, 63, 73, 116, 80, 63, 147, 37, 91, 63, 16, 36, 23, 63, 238, 237, 80, 63, 152, 30, 87, 63, 165, 243, 97, 63, 46, 126, 93, 63, 242, 123, 111, 63, 214, 119, 102, 63, 87, 235, 123, 63, 213, 178, 115, 63, 211, 111, 107, 63, 115, 231, 110, 63, 220, 242, 91, 63, 149, 46, 79, 63, 25, 232, 88, 63, 20, 87, 83, 63, 95, 193, 77, 63, 22, 69, 71, 63, 98, 92, 180, 62, 225, 104, 81, 63, 7, 198, 124, 63, 165, 23, 119, 63, 178, 108, 115, 63, 207, 161, 111, 63, 238, 63, 108, 63, 152, 31, 104, 63, 87, 28, 97, 63, 91, 162, 100, 63, 36, 101, 49, 63, 61, 94, 72, 63, 45, 28, 62, 63, 244, 136, 67, 63, 84, 84, 73, 63, 103, 157, 53, 63, 204, 81, 44, 63, 160, 72, 60, 63, 109, 254, 169, 62, 151, 135, 31, 63, 185, 50, 14, 63, 35, 61, 95, 63, 218, 163, 207, 62, 217, 186, 67, 62, 254, 23, 196, 62, 198, 5, 241, 62 };

EmlTrees rf1 = {
        309,
        (EmlTreesNode *)(rf1_nodes),	  
        10,
        (int32_t *)(rf1_tree_roots),
        1272,
        (uint8_t *)(rf1_leaves),
        32,
        6,
        0,
    };

static inline int32_t rf1_tree_0(const float *features, int32_t features_length) {
          if (features[4] < 0.261032f) {
              if (features[3] < 0.864686f) {
                  if (features[4] < 0.182160f) {
                      if (features[0] < 0.892777f) {
                          if (features[3] < 0.854833f) {
                              return 0.846697f;
                          } else {
                              return 0.872032f;
                          }
                      } else {
                          if (features[1] < 0.105755f) {
                              return 0.824503f;
                          } else {
                              return 0.537349f;
                          }
                      }
                  } else {
                      if (features[3] < 0.779539f) {
                          if (features[1] < 0.227408f) {
                              return 0.773354f;
                          } else {
                              return 0.812629f;
                          }
                      } else {
                          if (features[1] < 0.246633f) {
                              return 0.811358f;
                          } else {
                              return 0.839035f;
                          }
                      }
                  }
              } else {
                  if (features[4] < 0.049177f) {
                      if (features[4] < 0.031158f) {
                          if (features[0] < 0.996663f) {
                              return 0.954899f;
                          } else {
                              return 0.983458f;
                          }
                      } else {
                          if (features[4] < 0.031200f) {
                              return 0.857511f;
                          } else {
                              return 0.936636f;
                          }
                      }
                  } else {
                      if (features[3] < 0.903820f) {
                          if (features[5] < 0.778167f) {
                              return 0.881566f;
                          } else {
                              return 0.759464f;
                          }
                      } else {
                          if (features[3] < 0.932047f) {
                              return 0.902127f;
                          } else {
                              return 0.916899f;
                          }
                      }
                  }
              }
          } else {
              if (features[4] < 0.439148f) {
                  if (features[3] < 0.657344f) {
                      if (features[3] < 0.612613f) {
                          if (features[2] < 0.782837f) {
                              return 0.663003f;
                          } else {
                              return 0.959635f;
                          }
                      } else {
                          if (features[0] < 0.613122f) {
                              return 0.745781f;
                          } else {
                              return 0.688501f;
                          }
                      }
                  } else {
                      if (features[0] < 0.866398f) {
                          if (features[4] < 0.283128f) {
                              return 0.772445f;
                          } else {
                              return 0.739683f;
                          }
                      } else {
                          if (features[5] < 0.539405f) {
                              return 0.674152f;
                          } else {
                              return 0.737185f;
                          }
                      }
                  }
              } else {
                  if (features[3] < 0.370244f) {
                      if (features[3] < 0.136605f) {
                          if (features[2] < 0.485698f) {
                              return 0.223822f;
                          } else {
                              return 0.064852f;
                          }
                      } else {
                          if (features[1] < 0.832274f) {
                              return 0.422753f;
                          } else {
                              return 0.637951f;
                          }
                      }
                  } else {
                      if (features[4] < 0.482299f) {
                          if (features[5] < 0.329247f) {
                              return 0.546845f;
                          } else {
                              return 0.633306f;
                          }
                      } else {
                          if (features[2] < 0.651780f) {
                              return 0.560218f;
                          } else {
                              return 0.665811f;
                          }
                      }
                  }
              }
          }
        }
        

static inline int32_t rf1_tree_1(const float *features, int32_t features_length) {
          if (features[3] < 0.749698f) {
              if (features[4] < 0.441523f) {
                  if (features[4] < 0.335849f) {
                      if (features[3] < 0.724798f) {
                          if (features[1] < 0.130537f) {
                              return 0.688892f;
                          } else {
                              return 0.744623f;
                          }
                      } else {
                          if (features[1] < 0.212283f) {
                              return 0.749691f;
                          } else {
                              return 0.782112f;
                          }
                      }
                  } else {
                      if (features[3] < 0.623624f) {
                          if (features[3] < 0.623070f) {
                              return 0.667455f;
                          } else {
                              return 0.499146f;
                          }
                      } else {
                          if (features[0] < 0.539529f) {
                              return 0.795951f;
                          } else {
                              return 0.695607f;
                          }
                      }
                  }
              } else {
                  if (features[3] < 0.345292f) {
                      if (features[2] < 0.586106f) {
                          if (features[5] < 0.628430f) {
                              return 0.373076f;
                          } else {
                              return 0.552470f;
                          }
                      } else {
                          if (features[2] < 0.619089f) {
                              return 0.760800f;
                          } else {
                              return 0.437151f;
                          }
                      }
                  } else {
                      if (features[4] < 0.490708f) {
                          if (features[5] < 0.315236f) {
                              return 0.542470f;
                          } else {
                              return 0.618167f;
                          }
                      } else {
                          if (features[2] < 0.708114f) {
                              return 0.551605f;
                          } else {
                              return 0.697590f;
                          }
                      }
                  }
              }
          } else {
              if (features[3] < 0.880120f) {
                  if (features[3] < 0.818662f) {
                      if (features[3] < 0.792282f) {
                          if (features[0] < 0.848682f) {
                              return 0.802413f;
                          } else {
                              return 0.766755f;
                          }
                      } else {
                          if (features[0] < 0.906250f) {
                              return 0.824488f;
                          } else {
                              return 0.779495f;
                          }
                      }
                  } else {
                      if (features[4] < 0.140655f) {
                          if (features[1] < 0.129325f) {
                              return 0.860031f;
                          } else {
                              return 0.876663f;
                          }
                      } else {
                          if (features[0] < 0.883842f) {
                              return 0.850073f;
                          } else {
                              return 0.812359f;
                          }
                      }
                  }
              } else {
                  if (features[3] < 0.960158f) {
                      if (features[4] < 0.083941f) {
                          if (features[3] < 0.932255f) {
                              return 0.907555f;
                          } else {
                              return 0.923071f;
                          }
                      } else {
                          if (features[4] < 0.094655f) {
                              return 0.899123f;
                          } else {
                              return 0.883450f;
                          }
                      }
                  } else {
                      if (features[4] < 0.000700f) {
                          if (features[1] < 0.031283f) {
                              return 0.987993f;
                          } else {
                              return 0.950225f;
                          }
                      } else {
                          if (features[4] < 0.000794f) {
                              return 0.621385f;
                          } else {
                              return 0.950958f;
                          }
                      }
                  }
              }
          }
        }
        

static inline int32_t rf1_tree_2(const float *features, int32_t features_length) {
          if (features[4] < 0.249650f) {
              if (features[4] < 0.104344f) {
                  if (features[4] < 0.037617f) {
                      if (features[4] < 0.000648f) {
                          if (features[1] < 0.001474f) {
                              return 0.993026f;
                          } else {
                              return 0.974615f;
                          }
                      } else {
                          if (features[3] < 0.997529f) {
                              return 0.952894f;
                          } else {
                              return 0.694553f;
                          }
                      }
                  } else {
                      if (features[3] < 0.930149f) {
                          if (features[3] < 0.907105f) {
                              return 0.893812f;
                          } else {
                              return 0.904551f;
                          }
                      } else {
                          if (features[3] < 0.961274f) {
                              return 0.925255f;
                          } else {
                              return 0.704081f;
                          }
                      }
                  }
              } else {
                  if (features[3] < 0.818537f) {
                      if (features[3] < 0.790833f) {
                          if (features[1] < 0.152591f) {
                              return 0.754971f;
                          } else {
                              return 0.803792f;
                          }
                      } else {
                          if (features[1] < 0.075893f) {
                              return 0.772660f;
                          } else {
                              return 0.824120f;
                          }
                      }
                  } else {
                      if (features[3] < 0.848046f) {
                          if (features[1] < 0.133255f) {
                              return 0.825827f;
                          } else {
                              return 0.850934f;
                          }
                      } else {
                          if (features[3] < 0.868139f) {
                              return 0.860412f;
                          } else {
                              return 0.876913f;
                          }
                      }
                  }
              }
          } else {
              if (features[3] < 0.557881f) {
                  if (features[4] < 0.629387f) {
                      if (features[3] < 0.505160f) {
                          if (features[5] < 0.172796f) {
                              return 0.855301f;
                          } else {
                              return 0.553442f;
                          }
                      } else {
                          if (features[3] < 0.505526f) {
                              return 0.869805f;
                          } else {
                              return 0.605351f;
                          }
                      }
                  } else {
                      if (features[0] < 0.560039f) {
                          if (features[0] < 0.443996f) {
                              return 0.437678f;
                          } else {
                              return 0.339306f;
                          }
                      } else {
                          if (features[1] < 0.243818f) {
                              return 0.323020f;
                          } else {
                              return 0.660719f;
                          }
                      }
                  }
              } else {
                  if (features[3] < 0.658815f) {
                      if (features[4] < 0.401666f) {
                          if (features[1] < 0.380741f) {
                              return 0.679566f;
                          } else {
                              return 0.722078f;
                          }
                      } else {
                          if (features[3] < 0.559590f) {
                              return 0.765072f;
                          } else {
                              return 0.651453f;
                          }
                      }
                  } else {
                      if (features[4] < 0.285208f) {
                          if (features[1] < 0.212200f) {
                              return 0.750284f;
                          } else {
                              return 0.781690f;
                          }
                      } else {
                          if (features[0] < 0.866398f) {
                              return 0.740020f;
                          } else {
                              return 0.667440f;
                          }
                      }
                  }
              }
          }
        }
        

static inline int32_t rf1_tree_3(const float *features, int32_t features_length) {
          if (features[4] < 0.261503f) {
              if (features[4] < 0.135993f) {
                  if (features[3] < 0.932255f) {
                      if (features[4] < 0.087850f) {
                          if (features[3] < 0.932109f) {
                              return 0.906757f;
                          } else {
                              return 0.843252f;
                          }
                      } else {
                          if (features[4] < 0.087903f) {
                              return 0.534067f;
                          } else {
                              return 0.882127f;
                          }
                      }
                  } else {
                      if (features[4] < 0.031994f) {
                          if (features[4] < 0.000690f) {
                              return 0.983894f;
                          } else {
                              return 0.953563f;
                          }
                      } else {
                          if (features[0] < 0.996851f) {
                              return 0.927078f;
                          } else {
                              return 0.873100f;
                          }
                      }
                  }
              } else {
                  if (features[3] < 0.792428f) {
                      if (features[1] < 0.219339f) {
                          if (features[4] < 0.244110f) {
                              return 0.779507f;
                          } else {
                              return 0.747973f;
                          }
                      } else {
                          if (features[0] < 0.778007f) {
                              return 0.810304f;
                          } else {
                              return 0.883892f;
                          }
                      }
                  } else {
                      if (features[4] < 0.160660f) {
                          if (features[4] < 0.136077f) {
                              return 0.700782f;
                          } else {
                              return 0.852513f;
                          }
                      } else {
                          if (features[1] < 0.014434f) {
                              return 0.584300f;
                          } else {
                              return 0.827228f;
                          }
                      }
                  }
              }
          } else {
              if (features[4] < 0.457669f) {
                  if (features[4] < 0.335891f) {
                      if (features[0] < 0.901620f) {
                          if (features[3] < 0.675217f) {
                              return 0.726777f;
                          } else {
                              return 0.759949f;
                          }
                      } else {
                          if (features[1] < 0.091697f) {
                              return 0.704490f;
                          } else {
                              return 0.538843f;
                          }
                      }
                  } else {
                      if (features[4] < 0.370592f) {
                          if (features[1] < 0.500481f) {
                              return 0.701652f;
                          } else {
                              return 0.811483f;
                          }
                      } else {
                          if (features[1] < 0.453666f) {
                              return 0.651125f;
                          } else {
                              return 0.697006f;
                          }
                      }
                  }
              } else {
                  if (features[4] < 0.628896f) {
                      if (features[3] < 0.500072f) {
                          if (features[2] < 0.455633f) {
                              return 0.516504f;
                          } else {
                              return 0.579656f;
                          }
                      } else {
                          if (features[2] < 0.207823f) {
                              return 0.312473f;
                          } else {
                              return 0.600774f;
                          }
                      }
                  } else {
                      if (features[2] < 0.595738f) {
                          if (features[4] < 0.837015f) {
                              return 0.416129f;
                          } else {
                              return 0.237262f;
                          }
                      } else {
                          if (features[2] < 0.614711f) {
                              return 0.862907f;
                          } else {
                              return 0.492280f;
                          }
                      }
                  }
              }
          }
        }
        

static inline int32_t rf1_tree_4(const float *features, int32_t features_length) {
          if (features[3] < 0.757768f) {
              if (features[3] < 0.566254f) {
                  if (features[4] < 0.620869f) {
                      if (features[3] < 0.497371f) {
                          if (features[2] < 0.691477f) {
                              return 0.562826f;
                          } else {
                              return 0.737839f;
                          }
                      } else {
                          if (features[4] < 0.501651f) {
                              return 0.610983f;
                          } else {
                              return 0.934034f;
                          }
                      }
                  } else {
                      if (features[3] < 0.245902f) {
                          if (features[2] < 0.565382f) {
                              return 0.242895f;
                          } else {
                              return 0.606555f;
                          }
                      } else {
                          if (features[1] < 0.698194f) {
                              return 0.414263f;
                          } else {
                              return 0.534989f;
                          }
                      }
                  }
              } else {
                  if (features[4] < 0.323881f) {
                      if (features[1] < 0.145358f) {
                          if (features[0] < 0.855366f) {
                              return 0.619061f;
                          } else {
                              return 0.728427f;
                          }
                      } else {
                          if (features[3] < 0.731376f) {
                              return 0.756771f;
                          } else {
                              return 0.782036f;
                          }
                      }
                  } else {
                      if (features[4] < 0.362094f) {
                          if (features[0] < 0.524733f) {
                              return 0.787811f;
                          } else {
                              return 0.706956f;
                          }
                      } else {
                          if (features[5] < 0.759486f) {
                              return 0.676229f;
                          } else {
                              return 0.531126f;
                          }
                      }
                  }
              }
          } else {
              if (features[4] < 0.126084f) {
                  if (features[4] < 0.046669f) {
                      if (features[4] < 0.006564f) {
                          if (features[0] < 0.995256f) {
                              return 0.961142f;
                          } else {
                              return 0.989657f;
                          }
                      } else {
                          if (features[3] < 0.966852f) {
                              return 0.932084f;
                          } else {
                              return 0.951525f;
                          }
                      }
                  } else {
                      if (features[4] < 0.086669f) {
                          if (features[3] < 0.952035f) {
                              return 0.911775f;
                          } else {
                              return 0.646308f;
                          }
                      } else {
                          if (features[3] < 0.898106f) {
                              return 0.882763f;
                          } else {
                              return 0.895831f;
                          }
                      }
                  }
              } else {
                  if (features[4] < 0.178607f) {
                      if (features[1] < 0.046669f) {
                          if (features[3] < 0.871495f) {
                              return 0.811013f;
                          } else {
                              return 0.328510f;
                          }
                      } else {
                          if (features[3] < 0.848066f) {
                              return 0.843125f;
                          } else {
                              return 0.862126f;
                          }
                      }
                  } else {
                      if (features[0] < 0.781603f) {
                          if (features[2] < 0.259194f) {
                              return 0.774743f;
                          } else {
                              return 0.830327f;
                          }
                      } else {
                          if (features[4] < 0.210987f) {
                              return 0.815649f;
                          } else {
                              return 0.780642f;
                          }
                      }
                  }
              }
          }
        }
        

static inline int32_t rf1_tree_5(const float *features, int32_t features_length) {
          if (features[4] < 0.247518f) {
              if (features[4] < 0.104971f) {
                  if (features[3] < 0.960627f) {
                      if (features[4] < 0.077085f) {
                          if (features[4] < 0.059692f) {
                              return 0.924216f;
                          } else {
                              return 0.914646f;
                          }
                      } else {
                          if (features[0] < 0.960262f) {
                              return 0.897538f;
                          } else {
                              return 0.868961f;
                          }
                      }
                  } else {
                      if (features[3] < 0.990407f) {
                          if (features[2] < 0.623468f) {
                              return 0.951071f;
                          } else {
                              return 0.919873f;
                          }
                      } else {
                          if (features[1] < 0.001557f) {
                              return 0.987480f;
                          } else {
                              return 0.969049f;
                          }
                      }
                  }
              } else {
                  if (features[4] < 0.175983f) {
                      if (features[3] < 0.868117f) {
                          if (features[1] < 0.037596f) {
                              return 0.785974f;
                          } else {
                              return 0.850156f;
                          }
                      } else {
                          if (features[3] < 0.893737f) {
                              return 0.875847f;
                          } else {
                              return 0.485046f;
                          }
                      }
                  } else {
                      if (features[3] < 0.790457f) {
                          if (features[1] < 0.224941f) {
                              return 0.781321f;
                          } else {
                              return 0.819496f;
                          }
                      } else {
                          if (features[4] < 0.176004f) {
                              return 0.426242f;
                          } else {
                              return 0.823595f;
                          }
                      }
                  }
              }
          } else {
              if (features[3] < 0.576179f) {
                  if (features[3] < 0.373214f) {
                      if (features[3] < 0.246371f) {
                          if (features[5] < 0.617046f) {
                              return 0.299821f;
                          } else {
                              return 0.940948f;
                          }
                      } else {
                          if (features[1] < 0.693814f) {
                              return 0.429876f;
                          } else {
                              return 0.545106f;
                          }
                      }
                  } else {
                      if (features[3] < 0.510729f) {
                          if (features[1] < 0.319000f) {
                              return 0.507236f;
                          } else {
                              return 0.571317f;
                          }
                      } else {
                          if (features[2] < 0.497665f) {
                              return 0.636235f;
                          } else {
                              return 0.593407f;
                          }
                      }
                  }
              } else {
                  if (features[3] < 0.665822f) {
                      if (features[4] < 0.361133f) {
                          if (features[1] < 0.269624f) {
                              return 0.673323f;
                          } else {
                              return 0.719131f;
                          }
                      } else {
                          if (features[0] < 0.545566f) {
                              return 0.712966f;
                          } else {
                              return 0.667337f;
                          }
                      }
                  } else {
                      if (features[3] < 0.715840f) {
                          if (features[0] < 0.867941f) {
                              return 0.745959f;
                          } else {
                              return 0.659702f;
                          }
                      } else {
                          if (features[0] < 0.774222f) {
                              return 0.784693f;
                          } else {
                              return 0.755182f;
                          }
                      }
                  }
              }
          }
        }
        

static inline int32_t rf1_tree_6(const float *features, int32_t features_length) {
          if (features[4] < 0.247455f) {
              if (features[4] < 0.103257f) {
                  if (features[3] < 0.949637f) {
                      if (features[3] < 0.932255f) {
                          if (features[1] < 0.068765f) {
                              return 0.890506f;
                          } else {
                              return 0.905694f;
                          }
                      } else {
                          if (features[3] < 0.948709f) {
                              return 0.921383f;
                          } else {
                              return 0.881687f;
                          }
                      }
                  } else {
                      if (features[4] < 0.031597f) {
                          if (features[4] < 0.000491f) {
                              return 0.983714f;
                          } else {
                              return 0.955621f;
                          }
                      } else {
                          if (features[3] < 0.966665f) {
                              return 0.935117f;
                          } else {
                              return 0.870608f;
                          }
                      }
                  }
              } else {
                  if (features[3] < 0.836012f) {
                      if (features[3] < 0.792282f) {
                          if (features[0] < 0.848682f) {
                              return 0.805170f;
                          } else {
                              return 0.755033f;
                          }
                      } else {
                          if (features[0] < 0.800007f) {
                              return 0.844700f;
                          } else {
                              return 0.820177f;
                          }
                      }
                  } else {
                      if (features[4] < 0.132105f) {
                          if (features[0] < 0.801134f) {
                              return 0.899897f;
                          } else {
                              return 0.870801f;
                          }
                      } else {
                          if (features[0] < 0.945550f) {
                              return 0.858216f;
                          } else {
                              return 0.806177f;
                          }
                      }
                  }
              }
          } else {
              if (features[3] < 0.576066f) {
                  if (features[3] < 0.370713f) {
                      if (features[2] < 0.231465f) {
                          if (features[2] < 0.217455f) {
                              return 0.468224f;
                          } else {
                              return 0.940721f;
                          }
                      } else {
                          if (features[2] < 0.668126f) {
                              return 0.416449f;
                          } else {
                              return 0.594177f;
                          }
                      }
                  } else {
                      if (features[3] < 0.529509f) {
                          if (features[4] < 0.628373f) {
                              return 0.557892f;
                          } else {
                              return 0.906593f;
                          }
                      } else {
                          if (features[2] < 0.528021f) {
                              return 0.648579f;
                          } else {
                              return 0.591778f;
                          }
                      }
                  }
              } else {
                  if (features[4] < 0.331083f) {
                      if (features[3] < 0.718969f) {
                          if (features[0] < 0.866564f) {
                              return 0.747086f;
                          } else {
                              return 0.672700f;
                          }
                      } else {
                          if (features[0] < 0.774389f) {
                              return 0.783874f;
                          } else {
                              return 0.754805f;
                          }
                      }
                  } else {
                      if (features[3] < 0.615053f) {
                          if (features[2] < 0.733508f) {
                              return 0.658852f;
                          } else {
                              return 0.897325f;
                          }
                      } else {
                          if (features[1] < 0.453666f) {
                              return 0.699439f;
                          } else {
                              return 0.776903f;
                          }
                      }
                  }
              }
          }
        }
        

static inline int32_t rf1_tree_7(const float *features, int32_t features_length) {
          if (features[4] < 0.252347f) {
              if (features[4] < 0.127799f) {
                  if (features[4] < 0.049251f) {
                      if (features[3] < 0.980762f) {
                          if (features[3] < 0.966852f) {
                              return 0.932718f;
                          } else {
                              return 0.951298f;
                          }
                      } else {
                          if (features[4] < 0.000429f) {
                              return 0.986728f;
                          } else {
                              return 0.962806f;
                          }
                      }
                  } else {
                      if (features[4] < 0.087788f) {
                          if (features[4] < 0.049282f) {
                              return 0.442300f;
                          } else {
                              return 0.912636f;
                          }
                      } else {
                          if (features[3] < 0.898148f) {
                              return 0.881502f;
                          } else {
                              return 0.895230f;
                          }
                      }
                  }
              } else {
                  if (features[3] < 0.818537f) {
                      if (features[3] < 0.783866f) {
                          if (features[0] < 0.784931f) {
                              return 0.811355f;
                          } else {
                              return 0.776050f;
                          }
                      } else {
                          if (features[1] < 0.214740f) {
                              return 0.810617f;
                          } else {
                              return 0.827562f;
                          }
                      }
                  } else {
                      if (features[3] < 0.852133f) {
                          if (features[0] < 0.953099f) {
                              return 0.844174f;
                          } else {
                              return 0.714094f;
                          }
                      } else {
                          if (features[2] < 0.268535f) {
                              return 0.816576f;
                          } else {
                              return 0.867242f;
                          }
                      }
                  }
              }
          } else {
              if (features[4] < 0.430911f) {
                  if (features[3] < 0.664310f) {
                      if (features[3] < 0.619390f) {
                          if (features[2] < 0.810858f) {
                              return 0.668863f;
                          } else {
                              return 0.982064f;
                          }
                      } else {
                          if (features[0] < 0.498207f) {
                              return 0.808815f;
                          } else {
                              return 0.697480f;
                          }
                      }
                  } else {
                      if (features[3] < 0.705268f) {
                          if (features[0] < 0.682984f) {
                              return 0.760987f;
                          } else {
                              return 0.725180f;
                          }
                      } else {
                          if (features[2] < 0.175131f) {
                              return 0.581333f;
                          } else {
                              return 0.765948f;
                          }
                      }
                  }
              } else {
                  if (features[3] < 0.353872f) {
                      if (features[2] < 0.245476f) {
                          return 0.940721f;
                      } else {
                          if (features[2] < 0.745476f) {
                              return 0.420210f;
                          } else {
                              return 0.934735f;
                          }
                      }
                  } else {
                      if (features[3] < 0.500553f) {
                          if (features[2] < 0.701109f) {
                              return 0.545301f;
                          } else {
                              return 0.742652f;
                          }
                      } else {
                          if (features[1] < 0.130213f) {
                              return 0.499250f;
                          } else {
                              return 0.616553f;
                          }
                      }
                  }
              }
          }
        }
        

static inline int32_t rf1_tree_8(const float *features, int32_t features_length) {
          if (features[3] < 0.738779f) {
              if (features[4] < 0.448178f) {
                  if (features[3] < 0.659064f) {
                      if (features[4] < 0.382350f) {
                          if (features[0] < 0.554867f) {
                              return 0.757986f;
                          } else {
                              return 0.689536f;
                          }
                      } else {
                          if (features[5] < 0.824869f) {
                              return 0.663661f;
                          } else {
                              return 0.455906f;
                          }
                      }
                  } else {
                      if (features[1] < 0.344106f) {
                          if (features[3] < 0.710763f) {
                              return 0.728194f;
                          } else {
                              return 0.760786f;
                          }
                      } else {
                          if (features[1] < 0.346008f) {
                              return 0.873904f;
                          } else {
                              return 0.773224f;
                          }
                      }
                  }
              } else {
                  if (features[4] < 0.628896f) {
                      if (features[5] < 0.172796f) {
                          if (features[2] < 0.644775f) {
                              return 0.728858f;
                          } else {
                              return 0.951661f;
                          }
                      } else {
                          if (features[4] < 0.483604f) {
                              return 0.607250f;
                          } else {
                              return 0.561772f;
                          }
                      }
                  } else {
                      if (features[4] < 0.693428f) {
                          if (features[4] < 0.689790f) {
                              return 0.466810f;
                          } else {
                              return 0.752411f;
                          }
                      } else {
                          if (features[5] < 0.598074f) {
                              return 0.339359f;
                          } else {
                              return 0.488195f;
                          }
                      }
                  }
              }
          } else {
              if (features[3] < 0.868138f) {
                  if (features[3] < 0.818579f) {
                      if (features[3] < 0.778956f) {
                          if (features[4] < 0.219861f) {
                              return 0.652204f;
                          } else {
                              return 0.787528f;
                          }
                      } else {
                          if (features[4] < 0.179401f) {
                              return 0.578196f;
                          } else {
                              return 0.814274f;
                          }
                      }
                  } else {
                      if (features[0] < 0.872727f) {
                          if (features[3] < 0.867983f) {
                              return 0.856042f;
                          } else {
                              return 0.590394f;
                          }
                      } else {
                          if (features[3] < 0.846157f) {
                              return 0.816131f;
                          } else {
                              return 0.840311f;
                          }
                      }
                  }
              } else {
                  if (features[3] < 0.932255f) {
                      if (features[3] < 0.898096f) {
                          if (features[0] < 0.907793f) {
                              return 0.882624f;
                          } else {
                              return 0.865207f;
                          }
                      } else {
                          if (features[3] < 0.898701f) {
                              return 0.935485f;
                          } else {
                              return 0.900266f;
                          }
                      }
                  } else {
                      if (features[4] < 0.031597f) {
                          if (features[4] < 0.000648f) {
                              return 0.984060f;
                          } else {
                              return 0.951948f;
                          }
                      } else {
                          if (features[3] < 0.950419f) {
                              return 0.919675f;
                          } else {
                              return 0.933219f;
                          }
                      }
                  }
              }
          }
        }
        

static inline int32_t rf1_tree_9(const float *features, int32_t features_length) {
          if (features[4] < 0.261503f) {
              if (features[3] < 0.870735f) {
                  if (features[4] < 0.194049f) {
                      if (features[4] < 0.159155f) {
                          if (features[0] < 0.974558f) {
                              return 0.859174f;
                          } else {
                              return 0.809305f;
                          }
                      } else {
                          if (features[0] < 0.800624f) {
                              return 0.847292f;
                          } else {
                              return 0.825547f;
                          }
                      }
                  } else {
                      if (features[3] < 0.790457f) {
                          if (features[0] < 0.784003f) {
                              return 0.803732f;
                          } else {
                              return 0.778398f;
                          }
                      } else {
                          if (features[4] < 0.194101f) {
                              return 0.352267f;
                          } else {
                              return 0.818007f;
                          }
                      }
                  }
              } else {
                  if (features[4] < 0.047714f) {
                      if (features[4] < 0.014194f) {
                          if (features[1] < 0.001547f) {
                              return 0.987397f;
                          } else {
                              return 0.965205f;
                          }
                      } else {
                          if (features[4] < 0.031597f) {
                              return 0.950877f;
                          } else {
                              return 0.936063f;
                          }
                      }
                  } else {
                      if (features[4] < 0.087788f) {
                          if (features[4] < 0.058584f) {
                              return 0.922850f;
                          } else {
                              return 0.906732f;
                          }
                      } else {
                          if (features[3] < 0.897971f) {
                              return 0.879339f;
                          } else {
                              return 0.893102f;
                          }
                      }
                  }
              }
          } else {
              if (features[4] < 0.420794f) {
                  if (features[4] < 0.323902f) {
                      if (features[1] < 0.131614f) {
                          if (features[3] < 0.726456f) {
                              return 0.692950f;
                          } else {
                              return 0.782688f;
                          }
                      } else {
                          if (features[3] < 0.703942f) {
                              return 0.742617f;
                          } else {
                              return 0.763808f;
                          }
                      }
                  } else {
                      if (features[4] < 0.361133f) {
                          if (features[0] < 0.568170f) {
                              return 0.786443f;
                          } else {
                              return 0.709433f;
                          }
                      } else {
                          if (features[1] < 0.454220f) {
                              return 0.673123f;
                          } else {
                              return 0.735483f;
                          }
                      }
                  }
              } else {
                  if (features[4] < 0.624254f) {
                      if (features[4] < 0.490835f) {
                          if (features[1] < 0.052846f) {
                              return 0.332019f;
                          } else {
                              return 0.623163f;
                          }
                      } else {
                          if (features[2] < 0.747519f) {
                              return 0.555461f;
                          } else {
                              return 0.872027f;
                          }
                      }
                  } else {
                      if (features[3] < 0.207166f) {
                          if (features[0] < 0.212536f) {
                              return 0.405547f;
                          } else {
                              return 0.191142f;
                          }
                      } else {
                          if (features[2] < 0.457968f) {
                              return 0.382996f;
                          } else {
                              return 0.470747f;
                          }
                      }
                  }
              }
          }
        }
        

float rf1_predict(const float *features, int32_t features_length) {

        float avg = 0;

        avg += rf1_tree_0(features, features_length); 
    avg += rf1_tree_1(features, features_length); 
    avg += rf1_tree_2(features, features_length); 
    avg += rf1_tree_3(features, features_length); 
    avg += rf1_tree_4(features, features_length); 
    avg += rf1_tree_5(features, features_length); 
    avg += rf1_tree_6(features, features_length); 
    avg += rf1_tree_7(features, features_length); 
    avg += rf1_tree_8(features, features_length); 
    avg += rf1_tree_9(features, features_length); 
        
        return avg/10;
    }
    