3.177143633365631104e-01 4.020929634571075439e-01 -3.760472238063812256e-01 4.399767220020294189e-01 -7.732433676719665527e-01 2.593535184860229492e-01
3.688446283340454102e-01 3.104842305183410645e-01 1.030080765485763550e-02 3.172634541988372803e-01 1.822401434183120728e-01 -5.112662445753812790e-03
-5.199016928672790527e-01 -1.307614054530858994e-02 -2.397138923406600952e-01 5.276305079460144043e-01 -5.296471118927001953e-01 -3.254232928156852722e-02
2.697522640228271484e-01 -1.132427975535392761e-01 5.215315818786621094e-01 -5.557022094726562500e-01 -3.156031072139739990e-01 -3.809172213077545166e-01
-4.366944134235382080e-01 5.171585679054260254e-01 -5.835478901863098145e-01 1.472557932138442993e-01 -4.859932363033294678e-01 -6.445503234863281250e-01
3.035418391227722168e-01 4.520896449685096741e-02 4.443576633930206299e-01 1.273268014192581177e-01 -5.488170981407165527e-01 1.974528282880783081e-01
-2.177742123603820801e-01 -1.036732196807861328e-01 -5.691213607788085938e-01 -1.249232795089483261e-02 3.105516433715820312e-01 4.433777034282684326e-01
3.455825150012969971e-02 1.874574273824691772e-01 1.869314908981323242e-01 3.137063682079315186e-01 3.762557506561279297e-01 -1.799376159906387329e-01
1.983698010444641113e-01 -4.425418972969055176e-01 -4.041771590709686279e-01 -6.103456020355224609e-01 5.409723147749900818e-03 3.619748950004577637e-01
3.964939713478088379e-01 5.238563418388366699e-01 3.536968827247619629e-01 9.361495822668075562e-02 -3.028558790683746338e-01 -3.560711741447448730e-01
